expected 0.815283 0.291318 0.41424 -0.409921 -0.036614 -0.8353710000000001 -0.566719 -1.079861 -0.251042 0.291341 0.5130490000000001 0.875812 0.225349 -0.227146 -0.041952 -0.031906000000000004 -0.216165 0.11914000000000002 -0.133057 -0.261399 0.35099199999999997 -0.842508 0.195401 -0.419536 -0.104681 -0.024196999999999996 0.27647900000000003 -0.125775 0.430763 -0.06444999999999998 0.789068 0.043179999999999996 0.10064300000000001 -0.222136 0.087539 -0.41346499999999997 -0.10261999999999999 4.795793 -0.053389000000000006 -0.05322199999999999 0.683581 1.521657 0.814647 -0.162207 0.40166499999999994 -0.214613 -0.353879 -0.427112 -0.6261779999999999 -0.0006520000000000137
show -0.29260400000000003 -0.268652 0.089286 -0.230741 0.232824 0.168717 0.12223800000000001 0.86851 -0.49083699999999997 0.36366299999999996 -0.555466 0.147086 0.049897000000000004 -1.057606 0.6411199999999999 0.643696 0.367738 -0.8082050000000001 1.056975 -0.539024 -0.385205 -0.21776500000000001 0.5532950000000001 0.473418 -0.39653700000000003 -0.025591 0.007433999999999996 -0.19041 -0.019891000000000002 0.149638 0.169207 0.531886 -0.093374 -0.03975 -1.0461019999999999 0.477348 0.77139 4.708387 -0.141537 -0.13397900000000001 0.42481800000000003 0.899858 0.291549 -0.165248 0.437662 0.064771 0.137488 0.015946 0.059971 0.730399
late 0.17105700000000001 -0.5475920000000001 0.168394 -0.542476 0.193833 -0.604914 -0.749012 0.339086 0.190718 0.89337 0.5311790000000001 0.69894 0.9383839999999999 -0.7609349999999999 0.6377539999999999 -0.259575 0.11896499999999999 0.145262 -0.6799310000000001 0.192808 0.835297 0.37287099999999995 0.45011100000000004 -0.059219 0.649939 -0.182042 -0.6241559999999999 -0.575936 -0.7091510000000001 1.054612 -0.094715 -0.287814 0.354633 0.157243 0.8690089999999999 0.200612 0.32183700000000004 4.582154 -0.03744800000000001 0.16212500000000002 -0.027319999999999997 0.589598 -0.068718 -0.208314 0.782931 0.091625 0.040652 -0.689538 0.181283 -0.311094
system -0.434668 0.026870999999999992 0.109945 0.602745 -0.668894 0.087754 0.807983 -0.891845 0.122689 0.118363 0.263965 0.799196 -1.29637 -0.035812000000000004 0.6592279999999999 0.12627200000000002 -1.3399429999999999 -0.137431 0.022420000000000002 0.005828 -0.95323 -0.713279 -0.568967 -0.5947990000000001 0.45828599999999997 -0.5861000000000001 -0.414805 0.164018 0.280099 -0.036021 0.246402 -0.6642399999999999 -0.241712 -0.9502900000000001 -0.21764599999999998 0.07989099999999999 -1.15504 4.725103 0.022742 0.837811 -0.836379 -0.892662 0.244601 -0.253411 -0.474996 0.273358 0.734106 0.7339629999999999 -0.032455 -0.717057
european 0.142577 0.235792 -0.278876 -0.585773 -0.35948 0.575601 0.5304530000000001 -0.708558 0.345163 -0.306338 0.578345 -0.431563 0.60181 -1.294106 -0.434925 -0.735984 0.439296 0.649772 -0.08931999999999998 -1.387401 0.377899 -0.575083 -0.363251 -0.987778 -0.307298 -0.7334480000000001 -0.285241 -0.142712 0.545407 -0.9967790000000001 0.8765240000000001 0.10355499999999998 -1.021355 0.8863300000000001 0.560445 -0.957069 -0.35035499999999997 4.822182 0.012216999999999992 -0.282472 1.1219510000000001 -0.358136 0.85659 -0.162018 0.183825 0.72818 0.2661 -0.015391999999999996 0.155828 -0.612044
meeting 0.9734610000000001 -0.30509 0.178293 0.267615 0.125511 -0.8464320000000001 -1.664084 -0.348651 0.30033200000000004 0.6493599999999999 0.194055 -0.6628940000000001 0.069579 -1.533522 -0.10832 -0.419723 -0.46015399999999995 0.232224 -0.538133 -0.863738 0.519405 -0.035434 -0.684091 -0.347207 -0.7871079999999999 -0.020932000000000006 -0.05154800000000001 0.49943899999999997 0.172486 0.068008 0.47619 -0.336458 0.100527 0.279055 -0.369201 -0.714652 0.21068900000000002 4.592874999999999 0.05646799999999999 -0.151919 1.542866 0.926385 0.071498 -0.676396 0.508792 0.6873549999999999 -0.604007 -0.738607 0.48057000000000005 -0.19899499999999998
white -0.216708 -0.5900829999999999 0.157488 0.236517 0.397645 1.034221 -0.46825700000000003 0.33271 0.497324 -0.841998 -0.66048 0.6251009999999999 1.2589359999999998 0.635451 -0.178417 0.655193 -0.654964 -0.889951 -0.46737 0.20477399999999996 0.152756 0.826642 0.206376 0.7419290000000001 -0.025615 -0.030604 0.468331 -0.269919 -0.731599 -0.44799 -0.329164 0.218294 -0.0022129999999999997 0.055657999999999985 -0.7361059999999999 0.042448000000000013 0.265173 4.712923999999999 -0.003250000000000003 -0.552724 1.647216 -0.169015 -0.45946 0.25149 0.412446 0.8175159999999999 -1.0428769999999998 0.341214 -0.07561899999999999 -0.03866800000000001
washington 0.804692 0.579655 0.833717 0.695119 0.067975 -0.485153 -0.91337 0.12407500000000002 -0.079267 0.28881199999999996 -0.716314 -0.717076 0.432256 0.235631 0.278694 -0.659743 -0.49309400000000003 -0.640565 -0.629232 -0.261809 0.124112 0.008846999999999994 0.565243 0.92001 0.33530299999999996 0.162773 -0.166713 0.254826 -0.038388 -0.6976720000000001 0.409107 -0.782936 -0.406817 0.42494299999999996 -0.275041 0.094523 0.874503 4.651592 -0.276821 -0.061509 0.577725 0.048722 0.031741000000000005 -0.8910230000000001 -0.754051 -0.041164 -0.140007 -0.393498 0.701867 -1.31894
15 0.6898029999999999 -0.8321879999999999 -0.058157999999999994 -1.18592 -0.625746 0.109734 -0.269748 -0.726424 0.39831 0.432299 0.162138 0.355921 -0.178226 0.305141 -0.411987 -0.621823 0.730654 0.212661 0.10643100000000001 1.093124 0.7216819999999999 0.316896 1.21208 0.248662 0.060535000000000005 -0.10086300000000001 -0.09889600000000001 0.014927999999999997 -0.025928 0.14785500000000001 0.19282500000000002 -0.14735 0.631548 0.93879 0.077673 -0.498082 -0.467595 4.8108260000000005 -0.28596 -0.005513000000000004 0.005803999999999976 -0.184717 -0.09439599999999998 -0.18108200000000002 0.532598 -1.022732 -0.37359699999999996 0.014787999999999996 -0.25361999999999996 -0.212289
began 0.287805 -0.8550409999999999 0.813923 -0.473761 0.40100500000000006 0.212236 -0.26566300000000004 0.4136909999999999 -0.06287000000000001 0.7762830000000001 -0.180238 0.09778400000000001 0.100425 -0.402089 0.8366659999999999 -0.280362 -0.299299 0.073758 0.565483 -0.021063 0.6777489999999999 -0.03689300000000001 -0.034628 -0.004614999999999994 0.095149 -0.48497999999999997 -0.9371799999999999 -0.19444100000000003 -0.355935 0.7223299999999999 -0.287498 -0.185541 -0.361916 -0.135853 0.732183 0.564135 0.266643 4.413776 -0.171831 -0.314884 -0.343744 -0.024175000000000002 0.189355 -0.09799699999999997 0.475054 -0.026338 -0.183314 -0.531182 -0.054477 -0.749993
man -1.217787 -0.293539 -0.439053 0.069244 0.268264 -0.19881 -0.129703 1.003629 0.46067400000000003 -0.734329 0.035796999999999995 -0.14916200000000002 0.189841 -0.199274 -0.36053199999999996 0.31828999999999996 0.565469 -0.308554 -0.13955499999999998 0.772138 -0.113644 0.8250329999999999 0.385298 -0.11780399999999999 -0.25071899999999997 0.03189500000000001 0.067234 0.31408400000000003 -0.08328899999999999 -0.106944 -0.731913 -0.804701 0.03093599999999999 -0.144355 0.555669 0.47668299999999997 0.734981 4.709278 0.556401 -0.23461300000000002 0.116228 0.009931000000000002 -0.795582 0.32355 -0.628691 -0.00033199999999999896 0.06728500000000001 0.838033 0.073609 1.32374
became -0.39907 0.015449999999999995 -0.200019 0.197289 0.8880830000000001 0.042178999999999994 0.074773 0.746285 0.458903 0.37542600000000004 0.554001 -0.088824 -0.153171 -0.67272 -0.17907599999999999 -0.317688 -0.49158100000000005 -0.064769 0.219636 0.131302 0.186395 0.615704 0.428757 -0.433769 0.157235 0.019599000000000002 -0.259249 -0.8339610000000001 -0.5913889999999999 0.44084 -0.299443 0.016520000000000007 0.272156 0.11530600000000002 0.825266 0.380801 0.312668 4.3108 0.650513 0.804594 -0.358542 -1.1998570000000002 0.385226 -0.505992 0.277598 0.391207 0.198384 0.360253 0.131434 -0.023134000000000002
history 0.105299 0.308388 -0.93381 -0.49666299999999997 -0.469533 0.24493900000000002 -0.17770000000000002 0.641721 0.651338 0.520038 0.131139 -0.8281000000000001 0.439291 -1.013029 0.516859 -0.835587 0.296229 -0.153038 -0.054207 -0.655043 -1.3458450000000002 -0.255048 0.20730500000000002 0.40759 0.602409 0.4849 -0.74185 -0.370913 -0.752521 0.12281 -0.487522 0.07286600000000001 -0.242101 -0.031391 -0.043648 0.246764 0.58589 4.515852 0.5843240000000001 0.252085 -0.282246 -0.774799 0.18082900000000002 0.348248 -0.282118 0.073485 0.38199099999999997 0.491958 0.116549 -0.666204
run -0.1082 -0.6727369999999999 0.21898 -0.004845000000000002 -0.199485 -0.600054 -0.275756 -0.296279 0.170941 0.318186 -0.461111 -0.837612 -0.131486 0.377537 -0.0012469999999999981 -0.101581 -0.252685 -0.18424100000000002 -0.177093 0.665144 0.29756499999999997 -0.881351 0.849108 -0.189613 -0.21842299999999998 0.313148 -0.14379999999999998 -0.327831 0.063402 0.391148 -0.08482699999999999 -0.09673100000000001 -0.614483 0.030762 0.196457 -0.42962 -0.319199 4.695474 0.401251 0.202983 -1.174056 0.14300900000000002 -0.144198 0.082232 0.01387 -0.031904 0.488131 -0.11504500000000001 0.36016899999999996 0.145096
want -0.37144 0.230354 0.309386 0.067091 0.124846 -0.980024 0.274354 -0.16298700000000002 -0.055293 -0.6889449999999999 -0.564821 -0.5365850000000001 0.063789 0.285141 0.19414900000000002 0.170709 -0.504737 -0.6459429999999999 0.598233 -0.292757 0.563778 0.117844 -0.307469 0.446587 -0.7859579999999999 -0.26980899999999997 -0.975325 0.558763 0.575377 -0.8845029999999999 0.5121 0.322185 -0.54662 -0.731299 -0.584031 -0.014525999999999983 0.263464 4.7535430000000005 0.6362019999999999 0.117706 0.381554 0.7709619999999999 0.625811 1.126163 -1.3609779999999998 0.054189 -0.299356 0.168044 -0.10683899999999999 0.880224
june 0.493521 0.0075639999999999995 0.308789 -0.886978 0.680123 -0.063855 -0.356902 -0.160417 0.139301 1.512737 0.874321 0.946053 -0.05235600000000001 -0.470331 0.308854 -0.933181 0.213462 0.10191900000000001 0.34521100000000005 0.684909 0.709901 0.42704699999999995 0.741147 -0.063624 -0.151665 -0.339533 -0.681389 -0.481826 -0.425918 0.6307400000000001 -0.367635 -0.313586 0.706945 1.032501 0.16663899999999998 -0.595982 -0.221473 4.6518429999999995 -0.45733999999999997 -0.022784 0.284702 0.328231 0.213861 -1.144442 1.210191 -0.46387500000000004 -0.32552800000000004 -0.267003 0.0012189999999999979 -0.541291
12 0.681009 -1.1705839999999998 -0.130501 -1.234436 -0.633715 0.09347499999999999 -0.302658 -0.473207 0.5013650000000001 0.315114 0.038214 0.382534 -0.20516099999999998 0.291356 -0.326318 -0.795071 0.8499789999999999 0.24401 0.055161999999999996 1.100426 0.464608 0.295118 1.266435 0.38958800000000005 0.131752 0.084395 -0.204552 0.015238000000000002 -0.179892 0.16675900000000002 0.152904 0.084115 0.653605 0.736309 -0.084009 -0.500553 -0.610831 4.84623 -0.241458 0.0055659999999999946 0.00859600000000002 -0.145152 -0.171152 -0.280622 0.596428 -0.980414 -0.277635 0.098743 -0.136017 -0.20779699999999998
win -0.376672 0.117925 0.16476400000000002 -0.413134 -0.5621959999999999 -1.0406 -0.9392799999999999 0.403501 0.816555 -0.690505 -0.532006 -0.194837 0.222887 -0.6318630000000001 -0.722337 -0.941288 0.828982 0.749453 0.606268 0.37791600000000003 0.22126800000000002 -0.477851 1.4895420000000001 -0.130361 -0.72575 0.6227130000000001 -0.073342 0.100701 0.137076 -0.031027 -0.452808 1.1932450000000001 -0.562424 0.777692 -0.123324 -2.218749 0.10175300000000001 4.6887609999999995 1.18421 -0.05936499999999999 -0.615719 0.82886 0.529677 0.12470299999999998 -0.715643 -0.204323 -0.021302 0.742851 -0.539792 0.023320000000000007
played 0.13780599999999998 -0.900667 -0.023327 -0.09636299999999999 0.200105 -0.033327999999999997 -0.06346099999999999 1.382374 0.32222399999999995 -0.055039 -0.6342490000000001 -0.24483 -0.109635 -1.17232 -0.58484 -0.407538 0.931807 0.11280100000000004 0.734074 0.453239 0.08779400000000001 0.458924 1.856973 -0.301652 -0.16529100000000002 0.29164 -0.28990099999999996 0.385713 -0.776204 -0.207617 -0.7378739999999999 0.56448 -0.261644 0.5257609999999999 0.08046699999999998 -0.17725100000000002 0.30357 4.092006 0.922697 0.412088 -0.283237 -0.7741359999999999 0.328843 -0.09995200000000001 0.053378999999999996 0.505925 0.077616 -0.42447500000000005 -0.7258100000000001 0.13622500000000004
money 0.092202 0.496974 0.414941 0.6944509999999999 -0.21293700000000002 -0.139356 1.001366 -0.596004 0.11459100000000001 0.43350600000000006 -0.35469100000000003 -0.240259 0.571203 1.119896 0.069938 -0.008327000000000001 -0.418344 -0.54455 0.9854959999999999 -0.132412 0.13275 0.110727 -0.087713 -0.8928780000000001 -0.50092 0.621136 -0.045845000000000004 -0.244111 0.959103 0.46579000000000004 0.572474 -0.430275 0.00872400000000001 0.073074 -0.580176 0.442978 0.42471899999999996 4.856142 0.69294 -0.88479 -1.029732 0.670302 0.20649399999999998 1.3091119999999998 -0.604166 -0.495482 -0.272871 0.057937 0.5575810000000001 0.029623999999999984
30 0.42424399999999995 -0.580168 0.035343 -0.921433 -0.733447 0.004228 -0.048663000000000005 -0.9077339999999999 0.09030399999999998 0.404656 0.137213 0.384977 -0.143026 0.36409199999999997 -0.23980400000000002 -0.442722 0.6424300000000001 0.101597 -0.209046 0.9677340000000001 0.54576 0.333926 1.016962 0.40062 -0.011371999999999993 -0.038474999999999995 -0.171849 -0.503005 -0.104682 0.399565 0.369135 -0.2004 0.881363 0.6253 0.202355 -0.231137 -0.314947 4.824939 -0.454073 -0.11028099999999999 0.09213199999999999 0.116142 -0.074513 -0.067092 0.671782 -1.116976 -0.31624399999999997 -0.144447 -0.152208 0.06747399999999998
half 0.095898 -0.685157 -0.539806 -0.486036 -0.329118 -0.026833 0.36314599999999997 -0.542643 0.46652299999999997 -0.273432 0.10095499999999999 0.571815 0.555863 0.279319 -0.273952 -0.302147 0.836772 0.127709 -0.138683 1.066271 0.060965 -0.10799 0.72022 -0.387571 0.168975 -0.005346999999999998 0.5218240000000001 -0.131578 0.011053 0.587109 -0.11154900000000001 0.208865 -0.002820000000000017 0.222303 0.555917 -0.36935399999999996 -0.223973 4.7903649999999995 0.064066 0.085844 -0.46557299999999996 0.5552790000000001 0.456187 0.58942 -0.140115 -0.167165 -0.565601 -0.450871 -0.290424 0.277507
east 0.551794 -0.248309 0.25750700000000004 0.841481 -0.16118900000000003 0.24546 -0.26728799999999997 0.272163 -0.216684 -0.38562799999999997 0.9439379999999999 -1.131405 -0.679449 0.534769 -0.383374 -0.765196 0.12786199999999998 0.475298 -1.266279 0.187906 0.191465 -0.357219 -0.217446 0.056019 0.012469000000000008 -0.038255 0.116111 -0.485079 -0.807835 0.178092 -0.954321 -0.457509 -0.731557 0.283883 0.0043250000000000025 -0.75126 1.003344 4.612812 -0.209 0.781856 0.593437 -0.922123 0.6320479999999999 -0.45676300000000003 0.11975099999999998 -1.041633 -0.067692 -1.196442 0.13522 -0.788092
center -0.148249 0.072395 -0.462625 0.43786600000000003 -0.19293200000000002 0.383504 -0.5057119999999999 0.233224 0.5172950000000001 0.697473 -0.873839 -0.63581 -1.3543560000000001 0.44254399999999994 -0.327759 -0.530761 0.0625 0.324865 -0.874464 0.17715799999999998 -0.361155 -0.993681 -0.18606999999999999 1.048839 -0.022527000000000005 0.051457999999999976 0.592392 0.212668 0.043207999999999996 0.8209120000000001 0.469924 -0.5756020000000001 -0.31764699999999996 -0.5003660000000001 -0.08181 0.9024840000000001 0.31651799999999997 4.637691 0.104749 0.19087199999999999 0.49534999999999996 -0.229638 -0.766079 -1.11722 -0.47736100000000004 0.26380000000000003 -0.209396 -0.923763 -0.75259 -1.067797
few 0.5701670000000001 -1.082416 -0.044682 -0.143558 -0.264726 0.021605 0.13917200000000002 0.220435 -0.142048 -0.721793 -0.309056 -0.188439 0.810498 -0.268307 0.427458 0.250379 -0.031788 -0.225961 -0.194078 -0.158554 0.22121999999999997 -0.065975 0.196305 -0.037077 0.066716 0.35331 -0.450443 -0.22282000000000002 -0.19416999999999998 0.06086899999999998 0.08739299999999998 0.35134099999999996 0.19207200000000002 -0.8853329999999999 -0.0032049999999999995 0.741368 0.28017000000000003 4.838521 -0.035258 -0.06752799999999999 -0.10020799999999999 0.303666 0.847071 1.018701 -0.18990400000000002 -0.125521 -0.25053 -0.19422499999999998 -0.03707100000000001 0.24334500000000003
british -0.863344 -0.09720799999999999 0.8723890000000001 -0.148613 0.583044 0.225764 0.262467 0.431301 -0.48295099999999996 0.23288800000000004 1.0326270000000002 -0.746998 1.19986 -0.616125 0.136191 -0.32660599999999995 0.915305 0.11969800000000003 -0.166082 -0.461084 0.226034 0.141889 -0.394303 -0.385215 -0.09571400000000001 -0.447667 -0.328209 -1.554809 0.700554 -1.058045 -0.39867600000000003 -0.45934200000000003 0.8104119999999999 0.929022 0.805634 0.071656 -0.416255 4.707969 0.11879700000000001 0.070322 0.762713 -1.120884 0.14269 -0.31815699999999997 0.330054 0.076017 0.025742 0.06330200000000001 0.191224 -0.24774100000000002
case 0.373741 1.0926330000000002 -0.54577 0.0008619999999999999 0.14890399999999998 0.05511699999999999 -0.545148 0.091773 -0.46955100000000005 0.2861 0.057577 0.397197 -0.032338 0.364036 0.6065200000000001 -0.334358 0.21265099999999998 -0.152059 -0.34783000000000003 -0.383743 0.107661 0.49941199999999997 0.112096 -0.591809 -0.090644 0.49807100000000004 -0.073849 0.853524 0.228512 -0.553204 -0.903238 -0.7600009999999999 0.8881859999999999 -0.770724 -0.417824 0.298953 0.098055 4.5375 -0.51076 -0.388719 -0.23498200000000002 0.216044 -0.108409 -0.223655 -0.195565 0.9493280000000001 -0.140923 1.485436 0.304993 0.16842700000000002
too -0.102271 0.111665 -0.120686 0.43063300000000004 -0.24380200000000002 -0.473353 0.350294 0.142057 -0.47937799999999997 -1.193446 -0.873564 0.05755299999999999 0.357883 -0.537794 0.30246799999999996 0.594446 -0.7537670000000001 -0.788683 0.010603999999999995 0.241804 0.254176 0.314743 0.520141 -0.417508 0.44523 0.247641 -0.303977 0.256694 0.43264 -0.569882 -0.176051 0.439975 -0.264125 -0.6957500000000001 0.650318 0.367502 0.556888 4.850489 -0.032316 0.147507 0.010807999999999998 0.516436 0.6524099999999999 1.139181 -0.724942 0.082783 0.14085199999999998 0.39243300000000003 0.086197 0.9501980000000001
line -0.063698 -0.8229679999999999 0.10661 1.07065 -0.441511 -0.494206 0.49578099999999997 -0.046881000000000006 -0.478736 -0.49024599999999996 -0.192356 0.9503630000000001 -0.182919 0.42813999999999997 0.08303200000000001 0.241637 -0.01718900000000001 0.043449 -0.461176 0.07693699999999999 0.14583 0.335142 -0.077923 0.42656499999999997 -0.428806 -0.359066 -0.21377400000000002 -0.333508 -0.092893 0.159743 -0.518755 -0.061959 -1.651743 0.062084 -0.100678 -0.783839 0.137507 4.637746 -0.575842 0.548792 -0.980669 -0.983409 0.6149359999999999 -0.380778 0.49156999999999995 -0.217834 -0.055677000000000004 -0.146154 0.191426 -0.580495
central 0.269189 -0.34070500000000004 -0.6404179999999999 0.802717 -0.611787 0.082313 -0.04095100000000001 -0.07675399999999999 0.02475 -0.303353 0.967932 -0.23050900000000002 -1.2244320000000002 0.557788 0.21917899999999998 -0.623829 -0.779752 0.46272599999999997 -1.025493 -0.406063 -0.160839 0.03243599999999999 -0.78965 -0.28785499999999997 0.07226600000000001 0.297749 0.487564 -0.033528 -1.0373649999999999 0.20538 -0.14795 -0.418353 -0.390075 0.648901 0.183639 -0.25976299999999997 0.482382 4.798069 -0.084051 0.11136099999999999 0.499745 -0.06751 0.640858 -0.9239649999999999 0.10928 -0.38058800000000004 -0.085831 -0.92813 -0.077078 -0.700944
open -0.338725 -0.28671 -0.406913 -0.471193 -0.230767 0.39642299999999997 -0.540662 0.227964 -0.069443 -0.31287600000000004 -1.008362 -0.19699899999999998 -0.923177 -0.609155 -0.706893 -0.836811 -0.168968 0.039016 -0.34798300000000004 0.38488900000000004 1.160553 -0.954811 -0.335931 -0.462132 -0.175749 0.12408 -0.513069 -0.202018 0.255047 -0.35630300000000004 -0.010610999999999995 0.425184 -0.619492 -0.051032999999999995 -0.440366 -0.9295200000000001 -0.31871700000000003 4.820582 -0.514292 -0.202139 0.17785 0.222514 0.154265 0.022362 -0.206602 -0.04302500000000001 0.235661 0.10183400000000001 0.492408 -0.6417039999999999
de -0.328368 2.4542260000000002 -1.31843 1.030056 -1.080211 1.535582 0.73345 0.306299 0.217866 0.247788 0.238572 -0.702106 1.014966 -0.436178 -0.401327 0.48489899999999997 -0.148138 0.7234309999999999 0.425275 0.573027 2.035051 0.8883409999999999 -0.45611100000000004 1.10228 -0.758823 -0.438825 -0.921133 1.428829 -1.287009 0.607143 -0.229404 1.873354 1.588448 0.500188 0.523171 -1.023982 -0.522141 3.868716 0.879827 -0.8104579999999999 -1.042843 -0.35899000000000003 0.049560999999999994 -1.262272 1.196124 -0.201002 0.739939 -1.2124570000000001 0.24704800000000002 0.840046
come 0.22975099999999998 -0.125949 0.09792100000000001 -0.14100600000000002 0.19146999999999997 -0.552922 -0.0036229999999999995 0.143982 0.006151 -0.519007 -0.287333 -0.11876 0.45233100000000004 -0.23976599999999998 0.092109 0.049367999999999995 -0.205049 -0.314146 0.268047 -0.161579 0.10603200000000002 -0.17178100000000002 -0.004288 0.032220000000000006 -0.32911 -0.15243199999999998 -0.609364 0.362039 0.2974 -0.305047 0.08640899999999999 0.13458900000000001 -0.438451 -0.641926 -0.28546499999999997 0.194878 0.319867 4.799989 0.292636 -0.051970999999999996 0.32111 0.792296 0.652264 0.9016280000000001 -0.5228119999999999 -0.32418800000000003 -0.11674400000000001 -0.098799 -0.11087599999999999 0.549509
trade 0.785809 0.30260200000000004 -0.335175 0.49225800000000003 -0.034090999999999996 0.122014 -0.174441 -1.674488 0.16015200000000002 0.880684 0.082782 -0.256436 0.574727 1.00731 0.14475100000000002 -0.289066 -0.502264 0.203327 -0.8355170000000001 -1.171163 0.18078 -0.570832 0.517495 -0.275482 0.21843600000000002 -0.331625 -0.619289 0.628594 0.193853 -0.940782 0.886973 -0.51568 -1.0908039999999999 0.993669 0.330961 -0.111346 0.456898 4.523128 0.626728 -0.05549599999999999 0.688458 0.240996 -0.03555 0.8848130000000001 1.34185 0.663346 0.44400300000000004 -0.6320830000000001 0.352222 -0.705364
member -0.255304 -0.417377 0.12597999999999998 0.152736 0.197855 -0.29767699999999997 -0.242535 -0.42676000000000003 0.998146 0.784024 0.8585449999999999 -1.676914 -0.375891 -0.260546 -0.629262 -0.326617 -0.34645099999999995 0.096314 0.16597800000000001 -0.504803 0.27902899999999997 0.958739 0.11463400000000001 -0.31975 -0.770643 0.039263000000000006 0.757949 -0.045304 -0.46482999999999997 0.177985 0.29848800000000003 -0.67625 0.538144 0.423183 -0.310819 -0.174428 -0.402377 4.308163 0.590264 0.33764399999999994 1.148886 -0.839603 0.062552 -1.010921 0.23245100000000002 0.601515 -0.41151899999999997 0.698116 -0.207371 -0.01854800000000001
11 0.871151 -0.871003 -0.024128999999999998 -1.108549 -0.558161 0.034942999999999995 -0.524756 -0.28184 0.751789 0.5625870000000001 0.22802999999999998 0.295061 -0.185594 0.271817 0.08013100000000001 -0.7328950000000001 0.928118 0.146055 -0.005651999999999997 0.8560540000000001 0.532351 0.127155 1.520349 0.466806 0.20205000000000004 0.022299 -0.23622800000000002 0.321766 -0.025863000000000004 0.12932100000000002 0.057592000000000004 -0.003709000000000004 0.52316 0.674217 0.092274 -0.49824399999999996 -0.45103499999999996 4.716805 -0.232647 0.048397 -0.0061269999999999936 -0.007779000000000001 -0.287665 -0.423583 0.475848 -1.110613 -0.101221 0.20144 0.157527 -0.418221
army 0.458195 -0.954948 0.971359 0.886405 0.57462 -0.5070709999999999 -0.41304700000000005 0.29927600000000004 0.534959 0.050624 1.7151610000000002 -0.754572 0.460136 0.22781400000000002 1.254164 0.13783299999999998 -0.230217 0.9579420000000001 1.163803 1.193867 0.259357 0.291528 -1.66749 0.647045 0.31152399999999997 -0.151422 -0.156037 -0.550283 -0.750154 -0.435546 -0.263189 -0.769631 0.965038 -0.256042 1.587997 -0.36361299999999996 -0.235439 4.422195 0.48931499999999994 -0.8711190000000001 0.45550099999999993 -0.806254 -0.339803 -0.55057 -0.269018 -0.429964 -0.026865 0.317729 -0.708004 0.08134000000000001
saying 0.0062869999999999975 0.473949 0.2954 0.27461399999999997 0.658894 -0.5449269999999999 -0.33356 -0.40031100000000003 -0.36830399999999996 0.326067 0.526443 -0.304739 -0.0022889999999999994 -0.42262500000000003 1.01625 0.8517699999999999 -0.333015 -0.232616 -0.2384 -0.960202 0.358189 0.361929 -0.08963600000000001 0.179882 -0.457784 0.546199 0.17669300000000002 0.6029100000000001 0.173841 -0.831663 0.347288 -0.779039 -0.23982599999999998 0.183642 0.590345 -0.444751 0.166138 4.68457 -0.42205400000000004 -0.585438 0.19699 0.9324969999999999 -0.15532300000000004 0.082145 -0.6450020000000001 0.116152 -0.163503 0.313662 0.579386 0.9089
prime 0.220716 -0.600725 -0.12947399999999998 -0.402271 0.197656 -1.5443120000000001 -0.5884739999999999 0.09120999999999999 0.047786999999999996 -0.575596 1.790155 0.201991 0.549932 -1.332031 0.693974 0.557921 -0.695152 -0.191266 -0.505216 -0.056848 1.196203 0.345009 -0.638223 -0.8756149999999999 -0.175254 -0.063025 1.003949 0.107264 0.705348 -0.169323 1.4454440000000002 -0.8931069999999999 0.238622 1.8438219999999998 -0.453278 -1.0053830000000001 0.358068 4.268397 0.957684 1.1109200000000001 0.55808 0.71652 -0.610536 -0.583647 -0.14396099999999998 0.990997 -0.33881 0.029877 0.7705649999999999 0.326131
companies 0.205949 0.13818000000000003 1.159076 0.413315 -0.370711 0.108306 0.577505 -1.108679 -0.300385 0.502821 -0.566739 -0.15299200000000002 0.17744299999999996 1.41371 0.512994 -0.344797 -0.418502 -0.054041000000000006 0.293304 -1.619512 0.179565 -0.550696 -0.11532799999999999 -0.96885 -0.279897 0.11480699999999999 -0.007215000000000027 -0.579721 1.171696 -0.524516 1.095661 0.790853 0.090358 -0.6783269999999999 0.49198299999999995 0.41173499999999996 -0.774706 4.916675 0.258488 -0.61984 -0.6678569999999999 -0.530807 0.827661 0.628826 0.795945 -0.269872 0.39969299999999996 0.17970599999999998 0.34062499999999996 -0.035712999999999995
july 0.5298160000000001 -0.019020000000000002 0.2507 -0.842881 0.708277 0.007050000000000001 -0.408343 -0.15589 0.17183900000000002 1.459704 0.880957 1.038436 -0.0013859999999999983 -0.385007 0.361185 -0.892944 0.239067 0.201874 0.35270199999999996 0.6928570000000001 0.628268 0.383967 0.657756 -0.109625 -0.20148 -0.255707 -0.847926 -0.493178 -0.46643999999999997 0.742776 -0.451268 -0.30792200000000003 0.733264 1.036866 0.16529100000000002 -0.651865 -0.303856 4.633088 -0.518571 -0.135384 0.290372 0.30599699999999996 0.14891 -1.057847 1.277116 -0.529714 -0.199863 -0.24137 -0.037713 -0.45352800000000004
israel 0.392113 -0.179708 0.8223720000000001 -0.31293499999999996 0.457252 -0.819175 0.429702 -0.922426 -1.144128 0.342516 1.3224770000000001 -1.425014 0.274051 -0.28815999999999997 0.7420599999999999 -0.056011000000000005 0.529545 0.517891 -0.073587 0.593233 1.061908 0.103624 -0.937319 0.77839 -0.037854 0.8841829999999999 -0.363328 0.674361 0.8588990000000001 -0.156291 0.638436 -0.9205720000000001 -1.27562 0.296904 0.524261 -0.899715 1.09317 4.096461 -1.1981899999999999 -0.060119000000000006 1.096813 0.19039 -0.27289399999999997 -0.039771 -1.010899 0.359776 0.340581 0.04354899999999999 0.633656 -0.588805
little -0.537934 0.127075 -0.49542600000000003 0.7355309999999999 0.261031 -0.267472 0.202593 0.499709 -0.37007 -1.042614 -0.6499349999999999 0.022103 0.7008300000000001 0.038898 -0.075576 0.095921 -0.430436 -0.795153 -0.144401 0.360637 -0.8453459999999999 0.494183 0.315317 -0.079887 0.32305799999999996 -0.081152 -0.310152 -0.006256000000000001 0.2986 -0.045982 -0.675873 0.60944 -0.23996 -0.531428 -0.103278 0.303981 0.514268 4.743689 0.084382 -0.10584 0.242995 0.41407499999999997 0.410593 1.064376 -0.44811999999999996 -0.235961 -0.15331699999999998 -0.408023 -0.261285 0.6871309999999999
never -0.06523299999999999 0.469536 0.076777 0.08607400000000001 0.874448 -0.23294700000000002 0.116214 0.357122 -0.163274 -0.105695 -0.08237900000000001 0.241897 0.443614 -0.671179 0.018216999999999997 -0.113443 -0.179922 -0.741632 0.673065 0.191924 0.411059 0.41245299999999996 0.604784 0.253413 -0.482179 0.516481 -0.914025 0.42423900000000003 -0.32062999999999997 -0.421259 -0.341907 -0.11743699999999999 -0.333144 -0.8974850000000001 0.343343 -0.00865500000000001 0.5472980000000001 4.672331 0.265538 -0.030885000000000003 -0.619274 0.125574 0.554484 0.87144 -0.8037799999999999 0.019574 -0.14874099999999998 0.7352879999999999 0.042298 0.739562
least 0.867846 -0.833741 -0.094893 -0.784914 -0.6699090000000001 -0.082217 0.32072500000000004 -0.682956 0.007971000000000002 -0.41837799999999997 0.764678 -0.387326 0.31987299999999996 0.085974 0.48159399999999997 -0.09350900000000001 0.420502 -0.062858 -0.377138 0.426662 0.162263 -0.224144 0.791249 -0.089557 -0.145073 0.416755 -0.304663 -0.227279 -0.08695599999999999 0.18251299999999998 0.417315 -0.44301 0.9598310000000001 -0.875023 -0.08409499999999999 0.257077 0.138875 4.753911 -0.401746 -0.129416 0.133989 0.338305 0.465916 0.41341700000000003 -0.49222599999999994 -0.770153 -0.322039 0.33745 -0.24140299999999998 0.747927
put -0.33890299999999995 -0.292636 0.047776 0.197274 0.183452 -0.314314 0.120472 -0.27542 0.36325799999999997 -0.08508299999999999 -0.652377 0.128555 0.462093 -0.022986000000000006 0.12849200000000002 -0.338335 0.00010499999999999399 -0.12032899999999996 0.169895 0.428733 0.35017 -0.28631300000000004 0.090347 0.18477500000000002 -0.19659000000000001 0.04184700000000001 0.09578700000000001 0.622171 0.29623 -0.278652 0.05752399999999999 -0.2198 -0.245127 -0.06966599999999999 0.375988 -0.425971 -0.138852 4.750259 0.30783699999999997 -0.269353 -0.307326 0.789853 0.11816099999999999 0.496405 -0.617386 0.158589 -0.461805 0.139703 -0.161707 0.19270700000000002
oil 0.5125310000000001 0.174657 0.811187 0.16957 0.7293879999999999 0.750273 -0.056902 -1.508478 -1.494409 -0.320235 -0.10931199999999999 0.858417 0.967063 1.896358 0.517907 -0.632116 -0.23713 0.122488 -0.670575 -0.144237 -0.6276740000000001 -0.373094 -0.5466869999999999 -1.085192 0.669448 0.27351400000000003 0.40303300000000003 -0.37550000000000006 -0.274949 0.40867699999999996 1.385154 -0.044661 0.496758 1.176617 1.2470620000000001 -0.548561 -0.217219 4.604784 -0.278839 0.24926700000000002 0.763465 0.6562969999999999 -0.255798 1.307919 0.015462999999999998 0.20808900000000002 1.12025 -0.9369130000000001 -0.010205999999999993 0.179507
know 0.067107 0.482279 -0.262185 0.152792 0.347773 -0.517088 0.021636000000000002 0.585376 -0.029274 -0.413392 -0.529643 -0.463829 0.194693 -0.043823 -0.13777499999999998 0.395585 -0.123515 -0.9380959999999999 0.382834 -0.346771 0.003054000000000001 0.465204 0.27375099999999997 0.695681 -0.705983 0.029247000000000002 -0.8165580000000001 0.62763 0.407138 -0.560743 0.04507800000000001 -0.167142 -0.200505 -1.22757 -0.09109300000000001 0.408859 0.194525 4.578042 0.487702 -0.026091 -0.06145500000000001 0.661567 0.403007 0.992332 -1.497652 -0.21033100000000002 0.171672 0.341311 -0.132714 1.247608
forces 0.31020000000000003 -1.066149 1.367865 0.9882569999999999 -0.2227 -0.10486300000000001 -0.467196 -0.19589499999999999 -0.19122299999999998 -0.41614 2.25493 -0.7416119999999999 0.061966999999999994 0.459912 1.673254 0.088808 -0.107833 1.081018 1.246474 0.8855839999999999 0.7144250000000001 -0.03517300000000001 -1.596777 0.410701 0.470914 -0.589595 -0.12412000000000001 0.091676 -0.46023100000000006 -0.593728 0.091059 -0.49828000000000006 0.597056 -0.552958 1.393325 -0.601077 0.335806 4.391176 0.351515 -0.529012 0.928931 -0.17839200000000002 0.129818 0.006855 -0.34302 -0.19726100000000002 0.302941 0.266714 -0.451322 -0.043994
name -0.567215 0.394054 -0.32987299999999997 -0.047817 0.924895 -0.063993 0.645213 0.873882 0.170737 0.147517 0.5696749999999999 0.331631 0.398096 -0.043800000000000006 -0.38788500000000004 0.538266 -0.061105999999999994 -0.160366 -0.034758 -0.521888 -0.27119099999999996 1.338782 -0.7066399999999999 0.401346 -0.347708 0.396401 -0.271446 0.096577 -0.815111 0.0031669999999999997 -0.290854 0.196024 -0.18547 0.070585 -0.520626 0.057443 -0.325855 4.318331000000001 0.312194 0.49347799999999997 -0.397318 -0.693759 0.141992 -0.43059099999999995 0.234174 0.25515 0.29364300000000004 0.5646720000000001 0.6601859999999999 0.590228
released -0.5164 -0.770084 0.659072 -0.46682100000000004 1.26619 0.577752 0.574054 0.17107 0.13075599999999998 1.7891819999999998 0.184493 0.248872 -0.26130000000000003 -0.402274 0.27558 0.406324 0.851393 -0.176586 0.776437 -0.253599 -0.136388 0.600922 0.504021 -0.631719 0.208999 -0.260266 0.175452 0.608957 -0.7613719999999999 -0.184004 -0.48121 -0.399301 -0.014540999999999998 -0.15477000000000002 -0.73794 0.10872400000000002 -0.311903 4.297192 -0.8744419999999999 -0.135803 0.143774 0.7112259999999999 0.273046 -0.823303 1.133421 -0.379095 0.494438 0.438561 0.23932 0.693995
air -0.055944999999999995 -0.183771 1.285232 1.082915 0.541824 0.113041 -0.375607 -0.41559100000000004 -0.96164 -0.940504 -0.05212599999999999 0.690322 -0.334188 -0.339017 0.48424599999999995 0.682855 -0.03221500000000001 0.435712 0.385536 0.976183 -0.6389819999999999 -1.326743 -0.320709 0.192383 -0.028110999999999997 -0.501805 -0.420791 -0.287306 -0.402712 -0.16194299999999998 0.21933 -0.40766399999999997 0.6943280000000001 -0.239659 0.99702 0.23508600000000002 -0.8155749999999999 4.5695809999999994 -0.807146 -0.26947299999999996 0.8611949999999999 -0.904685 -0.34830099999999997 -0.942266 0.017154999999999997 -0.385936 0.6234109999999999 -0.7940849999999999 0.04496 -0.013516
past 0.478626 -0.38436100000000006 -0.40570300000000004 -0.278714 -0.47615300000000005 -0.017619 -0.253159 0.14058900000000002 0.645493 -0.20645600000000003 -0.038227 -0.2415 0.5285030000000001 -0.152224 0.4734 -0.102261 0.406883 0.150535 -0.222082 0.23651299999999997 0.37417199999999995 -0.59776 0.647789 -0.265547 0.673028 0.035252000000000006 -0.069074 0.20188899999999999 -0.198855 -0.216049 -0.031190999999999997 -0.22879399999999997 -0.948927 -0.164177 0.708159 0.069177 0.631855 4.538296 0.12309300000000001 -0.539451 -0.48987800000000004 0.389892 0.445856 0.7354940000000001 -0.298488 -0.256858 -0.001471 0.076294 0.056127 -0.700001
federal 0.823489 1.17292 0.271209 0.447387 -0.627775 -0.25571 0.277926 -1.226775 0.45253 0.8523350000000001 -0.307506 -0.06288099999999999 -0.48197 1.179165 1.272313 -0.3016 -1.173711 -0.520311 -0.299032 0.338187 0.029328 0.325357 -0.36116 -0.90113 -0.159796 0.24992799999999998 0.37725000000000003 0.199698 0.009246000000000004 -0.568871 0.066387 -0.965835 0.563197 0.224823 -0.293706 0.267794 -0.29181999999999997 4.710099 -0.42504 -0.707132 -0.04888000000000001 -0.0038049999999999994 0.602024 -0.622436 -0.234871 0.294796 -0.6142909999999999 0.913464 -0.242486 -0.825596
head -0.20919 -0.45085300000000006 -0.670628 0.661755 0.365803 -0.20874900000000002 -0.29131999999999997 0.443025 0.19753199999999999 -0.307646 0.048103 -0.014097000000000005 -0.191604 -0.105884 -0.820175 -0.127328 -0.487944 -0.27922399999999997 0.2457 0.014762999999999998 0.13058799999999998 0.274424 -0.177649 -0.13596 -0.20904 0.367259 1.312423 0.45230400000000004 -0.700356 0.186443 0.076847 -1.2182300000000001 -0.19312200000000002 0.212784 0.932007 0.052455000000000016 -0.30290100000000003 4.472054 0.480535 -0.634958 0.9567249999999999 -0.007424 -0.729838 -0.631838 -0.163095 0.916423 -0.022342 -0.092025 -0.616394 0.007273000000000002
death -0.262488 0.728272 -0.641411 -1.1678860000000002 1.151152 -0.462227 -0.102484 0.745716 0.49112599999999995 0.146763 1.375102 0.139648 0.433621 -0.115393 0.85667 -0.097747 0.277729 0.306983 0.24226199999999998 0.538006 0.422391 0.608788 0.565619 0.16931400000000002 0.324429 0.07069199999999999 -0.213447 0.6381749999999999 -0.143543 0.800311 -1.071971 -1.026058 1.080666 -0.34145600000000004 0.225206 1.073209 0.506365 4.299607 -0.44218 0.07226 -0.160827 0.359084 -0.48707900000000004 0.104769 0.024768 -0.061793 -0.453616 1.266033 0.235468 0.188882
leader -0.964608 -0.024188000000000008 0.529928 -0.240862 0.41235299999999997 -1.1383 -1.39601 -0.072992 0.7945009999999999 0.07762899999999999 1.656817 -1.033089 0.399598 -0.06657800000000001 0.02132 0.23608400000000002 -0.236203 0.6722170000000001 -0.10161500000000001 -0.102521 1.047907 0.5091749999999999 -0.046373 0.08043900000000001 -0.07143000000000001 -0.575098 1.082459 -0.175898 -0.489344 0.372282 0.677724 -0.577056 -0.354199 0.056299999999999996 0.590597 -1.0884260000000001 0.593502 4.214586000000001 0.937743 0.28619300000000003 0.146815 0.44486800000000004 -0.943634 -0.836757 -0.18291000000000002 1.5080969999999998 0.0041009999999999935 1.080784 0.227547 0.76052
health 0.6372770000000001 1.145512 -0.452125 -0.6735869999999999 0.08547300000000001 0.363464 -0.025480000000000003 -0.706761 0.656879 0.577377 -0.10239900000000002 -0.566444 -1.266587 -0.013352999999999997 0.192539 0.5161910000000001 -1.620579 0.08064500000000001 0.10806000000000002 -1.156205 -0.595323 -0.342078 0.214059 -0.292474 0.761412 0.366374 0.254769 0.187231 1.791552 0.032575999999999994 0.5270170000000001 -0.312505 0.5350349999999999 0.0845 0.381902 1.0162010000000001 -0.437067 4.602644 0.066555 -0.193832 0.473738 0.027744000000000005 -0.358938 -0.5115620000000001 -1.116169 -0.133114 -0.8725609999999999 -0.20741700000000002 -0.128025 -0.347155
earlier 0.513717 -0.323121 0.203308 -0.684507 0.16946 -0.308556 -0.7307520000000001 -0.36925199999999997 -0.13721999999999998 0.7476780000000001 0.777297 0.597971 0.585796 -0.557469 0.68886 0.021866999999999998 0.335624 0.252175 -0.5723720000000001 -0.491121 0.639894 -0.033280000000000004 0.350341 -0.272302 0.286313 0.453184 0.387167 0.06701499999999999 -0.11696100000000001 -0.060866 0.12519 -0.32188799999999995 0.188222 0.07288599999999999 0.6227 -0.401959 -0.024166 4.604762 -0.603675 -0.469927 0.06406 0.71011 -0.00020199999999997997 -0.343997 0.566898 -0.028353999999999997 -0.274865 0.130753 0.245048 0.10921599999999998
union 0.023059999999999997 0.312324 0.218588 0.641642 0.351387 -0.307527 0.328335 -1.010404 0.386673 0.326496 0.811035 -1.161098 0.41060800000000003 0.054487 0.470089 -0.56477 -0.720857 0.195569 0.030442 -0.764804 0.566351 0.073018 -0.004369999999999999 -0.265195 -0.737289 -0.778818 -0.22874 -0.073581 -0.373197 -0.370091 0.8848119999999999 -0.282442 -0.39918000000000003 0.44697300000000006 0.070644 -0.853445 -0.476166 4.455611 -0.047039 -0.292228 1.078506 -1.109982 0.135574 -0.48420300000000005 -0.196702 0.548697 -0.478281 -0.214497 -0.884818 -0.598459
7 0.482507 -0.6860269999999999 -0.294956 -1.453485 -0.264825 0.007810000000000001 -0.7831509999999999 -0.261296 0.761006 0.223349 -0.018467000000000004 0.398386 -0.531085 0.378745 -0.619666 -1.248654 0.92935 0.089192 -0.0015760000000000218 1.560918 0.527811 0.28698799999999997 1.502223 0.45537400000000006 0.5264139999999999 -0.445038 0.12182900000000002 0.487771 -0.088061 -0.016701 0.34705600000000003 0.476281 0.358889 0.973187 -0.19861299999999998 -0.973843 -1.134452 4.592683 -0.507206 0.26408899999999996 -0.374471 0.018756000000000002 -0.060172 -0.497548 0.505652 -1.377948 0.116809 0.18101 0.37212599999999996 -0.5440200000000001
department 1.249376 0.6584380000000001 -0.517671 0.876107 -0.09182799999999999 0.386247 -0.29054199999999997 -0.197736 -0.107996 1.4322270000000001 -0.6864250000000001 -0.321283 -0.708419 0.512672 0.406034 -0.228966 -1.0641639999999999 -0.008583000000000007 0.136523 -0.9543809999999999 -0.482112 0.439924 -0.973906 0.079008 0.24237 0.408177 0.320842 0.029082000000000004 -0.100949 -0.882436 -0.056178 -0.8567130000000001 0.844169 0.567752 0.474871 0.721463 -0.194905 4.761984 -0.323146 -1.136209 0.069495 -0.369912 0.323446 -1.178733 -0.071063 -0.278092 -0.33687500000000004 -0.368717 -0.654326 -0.584821
chinese -0.399444 -0.641964 0.165991 -0.374733 0.117274 0.192534 -0.958802 -0.463371 0.47473 -0.503585 0.44917 -0.426852 -0.05903599999999999 -0.503078 -0.29513 0.252104 -0.549826 1.3366120000000001 -0.696017 -2.121987 -0.883642 -0.002036999999999997 -0.7937540000000001 -0.648116 -0.43784 -0.20003500000000002 -0.758346 0.268138 -0.537729 -1.031278 0.8058510000000001 -0.6594 -0.122311 0.9639570000000001 0.859888 1.005188 0.085283 4.708397 0.6287 -0.5016590000000001 0.24426299999999998 -0.06280799999999999 0.295903 1.229047 1.067763 -0.879786 0.211196 0.735033 0.56027 0.08223899999999999
ago 0.30965 0.029535 0.029885000000000002 -0.858221 0.237939 -0.092403 -0.37412 0.046512999999999985 0.180162 0.564341 0.27088100000000004 0.12329599999999999 0.677774 -0.171815 0.119241 -0.660929 -0.04800700000000001 -0.249822 -0.46832399999999996 -0.000453000000000002 0.637078 -0.19616 0.7381089999999999 -0.415872 0.218742 0.301286 -0.22742800000000002 -0.5524169999999999 -0.505538 0.5070479999999999 0.167292 -0.33569899999999997 0.058078 -0.628335 0.431056 0.06007299999999999 0.7154689999999999 4.65161 -0.052889 -0.498928 0.12318499999999999 0.433931 -0.09617500000000001 0.023093000000000002 -0.195268 -0.310196 -0.196164 0.12451800000000002 -0.097689 0.322697
point 0.087283 0.29803599999999997 -0.5713440000000001 0.760564 -0.6392329999999999 -0.107785 -0.674282 -0.273175 -0.137356 -0.31336200000000003 0.20097399999999999 0.319873 0.228052 0.299841 -0.31755900000000004 0.064456 0.6446970000000001 0.053311 -0.90492 0.7899849999999999 -0.296896 0.283968 0.501774 1.024118 -0.094662 0.083648 -0.29657300000000003 -0.262868 0.157997 0.160583 -0.639861 0.142988 -0.710235 -0.478711 0.210782 -0.8789739999999999 -0.088578 4.594226 -0.205851 -0.028630999999999997 -0.374382 0.49101799999999995 0.583254 0.645023 0.14683000000000002 -0.045561000000000004 0.195658 0.166621 -0.364576 -0.641948
director 0.249969 1.367356 0.16809800000000003 0.280836 0.398543 0.301491 -0.135162 0.899698 -0.030681 1.3907280000000002 -0.639034 -1.315527 -0.889867 -0.82142 -0.36278299999999997 0.00915000000000002 0.05738700000000001 -0.62139 0.562514 -0.534913 -0.412116 0.013208999999999999 -0.488626 -0.142822 -0.110491 -0.256068 1.7561769999999999 0.677148 0.09496399999999999 -0.395691 0.699773 -0.6576960000000001 0.325173 0.7219260000000001 0.543787 1.209522 0.023404 4.203476 0.733167 0.04483599999999999 0.08517 -0.21373799999999998 -0.851613 -0.9791319999999999 0.5501659999999999 0.467079 0.39487 -0.761146 -0.842571 0.36424999999999996
night 0.023811 -1.009679 0.083959 -0.437833 0.40497000000000005 -0.797941 -0.8227610000000001 0.787094 -0.076234 -0.42966099999999996 -0.773913 0.0009520000000000015 0.036522000000000006 -0.660372 0.683121 0.22428700000000001 0.5707139999999999 -0.461889 0.051861 1.047906 0.332527 -0.62436 0.853017 0.384138 -0.6131530000000001 0.07209199999999999 -0.463619 0.195823 -0.467476 0.458517 -0.366585 0.07589800000000001 0.099519 0.068506 -0.209158 0.328651 0.190674 4.645103 -0.49485 -0.593904 0.578791 0.773409 -0.20413800000000001 -0.302578 0.07875900000000001 -0.304739 -0.023013 -0.679905 0.16324 0.501567
april 0.5148010000000001 -0.034168 0.336616 -0.945911 0.7382139999999999 -0.103338 -0.326613 0.0048870000000000025 0.253718 1.453196 0.937319 0.963622 -0.008261999999999999 -0.335039 0.57231 -0.974645 0.212462 0.05940399999999999 0.307057 0.56159 0.661886 0.406527 0.7678590000000001 -0.015831 -0.19023 -0.30151 -0.69479 -0.38444500000000004 -0.546183 0.648835 -0.37779 -0.380919 0.729441 0.9379379999999999 0.250535 -0.573434 -0.19389399999999998 4.604897 -0.465097 0.029866999999999998 0.24509399999999998 0.314937 0.11177500000000001 -1.16556 1.212121 -0.565401 -0.179118 -0.23509599999999997 -0.004257999999999998 -0.469468
career 0.165321 -0.688921 -0.653872 -0.0034249999999999836 -0.430003 -0.338777 -0.5144610000000001 0.46284499999999995 0.722525 0.964218 -0.358451 -0.530508 0.351723 -1.257097 -0.340088 -0.729642 0.7136499999999999 0.091492 0.903389 0.701425 -0.862422 -0.28233199999999997 1.8540290000000001 -0.276927 0.301441 0.44592600000000004 -0.30938 -0.411725 0.10005399999999999 0.39611100000000005 -0.395174 0.213582 -0.379054 0.34460599999999997 0.314153 0.24032399999999998 0.833429 4.219868 1.252393 -0.24186200000000002 -1.130463 -0.727182 0.163223 -0.19065100000000001 0.299462 0.342947 0.14797300000000002 0.08998600000000001 -0.321015 -0.428765
near 0.202159 -0.303693 -0.341824 0.7163120000000001 -0.084677 0.361346 -0.13359500000000002 0.781627 -0.635402 -0.687417 0.415621 0.120525 -0.505734 0.957418 0.082181 -0.09524300000000001 0.135443 0.6556960000000001 -1.8126039999999999 0.815107 0.570208 -0.24381300000000003 -0.7983629999999999 0.385659 -0.517489 0.326573 -0.519405 -0.8032950000000001 -0.6522209999999999 1.422533 -1.266043 -0.527129 0.03326 -0.30778099999999997 0.570581 -0.111388 0.859026 4.466477 -0.9890080000000001 -0.07847599999999999 0.31816799999999995 -0.220279 -0.032445 -0.541048 -0.169443 -1.135884 0.16718 -1.153246 -0.554881 -0.14973
great -0.410914 0.717121 -0.393805 0.14269199999999999 0.412965 -0.635559 0.08088600000000001 0.978715 0.29956900000000003 -1.132231 0.472078 -0.605593 0.8731979999999999 -0.875148 -0.328805 -0.354271 0.116759 0.052438 -0.196704 0.072568 -1.332778 -0.34679200000000004 -0.246459 0.226466 0.15063000000000001 -0.028216999999999992 -0.269464 -0.225445 -0.24271 0.211806 -0.213769 0.258843 -0.266762 -0.086787 -0.06791699999999999 0.353433 0.362749 4.636214 0.916364 0.820891 -0.218452 -0.525929 0.053117000000000025 1.0918290000000002 -0.20652500000000001 -0.088203 0.084978 -0.485812 -0.25941100000000006 -0.054953
force 0.19263 -0.051691999999999995 1.391896 0.991731 -0.074315 -0.156909 -0.236165 -0.763042 -0.19300499999999998 -0.334542 1.278589 -0.518247 0.06411700000000001 0.277983 0.873953 -0.07408400000000001 0.022087999999999997 0.471462 0.737606 1.1896550000000001 -0.313654 -0.491607 -0.622234 0.280312 -0.038442000000000004 -0.728745 -0.168095 0.21677999999999997 0.050966 -0.864599 0.028839000000000004 -0.455698 0.743486 -0.650764 0.7435510000000001 -0.376228 -0.438349 4.533416 0.288746 -0.545126 0.9917210000000001 -0.5752489999999999 0.15243 -0.659168 -0.140915 0.135403 -0.023828000000000002 0.06641 -0.9093420000000001 0.037223
capital 0.236132 0.391223 0.105562 1.08589 -0.934886 -0.824206 0.085535 -0.41541399999999995 -0.688813 -0.106817 1.1207369999999999 0.255125 -1.135149 0.988361 0.8469610000000001 -0.618772 0.330407 0.8609260000000001 -0.7099179999999999 -0.515496 0.30203199999999997 -0.039811000000000006 -0.905384 -0.6483650000000001 -0.16062 0.017828999999999998 0.24839899999999998 -0.236766 -0.620497 0.05444500000000001 0.319936 -0.224975 0.416607 0.462337 0.164328 0.184861 0.9105650000000001 4.57623 -0.08316699999999999 -0.604151 0.600162 -0.067735 0.010915999999999995 0.065161 0.433628 -0.930159 -0.203326 -1.54968 -0.1252 -0.121944
french -0.974823 0.19911299999999998 -0.5114540000000001 0.198975 -0.050826 0.675334 0.41565 0.018135999999999985 0.23556 -0.16912099999999997 0.505304 -0.509678 1.8389739999999999 -1.308189 0.271316 0.038905 0.638071 1.094569 -0.18744 -0.329471 0.97244 0.486258 -0.724413 -0.49511099999999997 0.369922 -1.274856 -0.6711699999999999 -0.487944 0.25542 -0.734691 0.455237 0.623749 0.91989 0.9015880000000001 1.104448 -0.490534 -0.397808 4.6734860000000005 -0.038285999999999994 -0.8732 0.297149 -0.9523699999999999 0.208721 -0.5276350000000001 -0.269937 0.0921 0.040762999999999994 -0.460241 0.369719 0.254176
election -0.042189000000000004 0.0005740000000000016 -0.10005100000000001 0.042439000000000004 -0.12803499999999998 -0.665288 -0.9584349999999999 -0.356084 0.297416 0.5329619999999999 0.9205300000000001 -0.220582 0.091728 -0.45961799999999997 1.8237420000000002 -0.423455 -1.5550519999999999 -0.5788500000000001 0.19816899999999998 -0.268042 0.718455 0.05451 0.655118 -0.15196500000000002 -0.295505 -0.07955699999999999 0.374406 -0.5733429999999999 -0.49507500000000004 0.25288499999999997 -0.437059 -0.20652900000000002 0.917273 1.08084 -0.894282 -1.520674 0.33648100000000003 4.270573000000001 0.252108 0.957328 -0.013793000000000003 1.038268 1.098309 -0.763589 -0.22611399999999998 0.556933 -0.894538 1.3965100000000001 -0.34073699999999996 -0.44148
town 0.480175 -0.6750659999999999 -0.6473409999999999 0.563229 0.069467 -0.28520999999999996 0.239117 0.977581 -0.24869000000000002 -0.290831 0.538226 -0.42149000000000003 -0.453048 0.884908 0.667948 -0.131927 0.130015 0.552256 -1.602336 0.602771 0.508315 0.632325 -0.7033780000000001 -0.07152700000000001 -0.579006 0.007759000000000002 -0.345611 -1.158546 -0.676585 0.875164 -1.084373 0.059768 0.17697200000000002 0.286343 -0.252017 -0.13242400000000001 1.537016 4.435303 -0.38017599999999996 0.284082 0.099089 -0.648415 0.35099400000000003 -0.43254400000000004 -0.240557 -1.071285 -0.552699 -1.340618 -0.76004 0.651524
peace -0.224825 -0.061481 0.34909999999999997 0.386977 0.641965 -0.459308 -0.650901 -1.040861 -0.343194 0.913451 1.598299 -1.431225 0.668119 -1.048084 0.49651199999999995 -0.7438290000000001 -0.336758 0.564194 0.101937 0.14096399999999998 0.494351 -0.48713799999999996 -0.877873 0.41971400000000003 0.05815799999999999 -0.31453200000000003 -0.697026 1.234181 0.492472 0.08569299999999999 -0.122583 -0.267948 -1.046243 -0.548052 -0.5840160000000001 -1.240282 1.7034189999999998 4.22569 0.42765699999999995 0.363896 1.4021089999999998 0.466098 -0.409974 0.526535 -0.242103 0.37991199999999997 -0.707597 -0.564848 -0.096937 -0.07504
region 1.125127 -0.086266 -0.595377 -0.060453 -0.559246 0.533693 -0.18008500000000002 -0.17613800000000002 -0.864808 -0.486401 1.733454 -0.381932 -0.43111099999999997 0.840069 0.282678 -0.018521999999999997 -0.472975 1.053842 -0.302797 -0.5520769999999999 -0.18642799999999998 -0.37055499999999997 -1.2640959999999999 -0.685781 0.633828 -0.009563000000000002 -0.16278399999999998 0.114937 -1.110873 0.022682000000000008 -0.228906 0.5284150000000001 -0.290695 0.482309 0.503248 -0.29374900000000004 1.02112 4.653435 0.23265 0.598978 1.173633 -0.426436 1.3491279999999999 -0.661235 -0.877332 -0.977094 0.8301529999999999 -1.0783749999999999 -0.5077769999999999 -0.171087
council 0.8304469999999999 0.336854 0.49478500000000003 0.479373 0.421662 -0.486233 0.018186 -0.628933 0.606698 0.526011 0.437211 -1.259086 -1.211832 -0.485247 0.153086 -0.923049 -0.942106 0.435901 -0.23202 -0.6519360000000001 0.21627400000000002 0.37227699999999997 -0.934434 -0.196662 -0.584433 0.37685100000000005 0.43514200000000003 0.19426100000000002 -0.1511 -0.70608 -0.397183 -0.741546 0.585767 0.797003 -0.745934 -1.018993 -0.076408 4.355846 -0.20986400000000002 0.7953939999999999 1.449336 -0.47053599999999995 0.46501600000000004 -0.848402 0.263136 0.782813 -1.3589790000000002 -0.090795 -0.0497 -0.5569040000000001
big -0.484981 -0.171959 -0.087369 0.170999 -0.05986000000000001 -0.694958 0.625499 0.5886899999999999 -0.049628000000000005 -0.85416 -0.982551 -0.340609 0.764438 0.596997 -0.259197 -0.11783199999999999 -0.36464799999999997 -0.756926 0.340168 -0.044964 -0.7827729999999999 -0.519899 0.6851 -0.39195599999999997 -0.043082 0.171004 0.135445 -0.162899 0.20933 0.089339 0.10068099999999999 0.551449 -0.851124 -0.094664 -0.5390429999999999 0.100054 0.13342299999999999 4.913577 0.593393 -0.435511 -0.05154 0.581925 0.13485499999999997 0.525614 0.136368 -0.115919 0.7604029999999999 -0.047326 -0.42786599999999997 0.318796
statement 0.408914 0.5470010000000001 0.28178099999999995 0.504899 0.7671 -0.25150700000000004 -0.660053 -0.5247660000000001 -0.275749 0.902947 0.9067379999999999 -0.246017 0.095337 -0.515262 0.932066 0.626079 0.223906 0.03489 -0.44193299999999996 -1.281421 0.034851999999999994 0.172871 -0.39503900000000003 0.253782 -0.341024 0.40700000000000003 0.878272 0.8385929999999999 0.289445 -0.9613510000000001 0.164785 -0.520017 -0.053423 -0.141207 0.056607000000000005 -0.847715 -0.20807799999999999 4.302788 -0.800621 -0.705317 0.669509 0.649824 -0.367718 -0.7471369999999999 0.19094299999999997 0.640568 -0.389054 0.017050999999999983 0.563796 0.647718
% 0.131518 0.113596 -0.359024 -1.763764 -1.098638 1.373491 0.023903000000000008 -2.172262 -0.037881 0.477885 1.237713 0.991683 -1.3725040000000002 0.9307420000000001 -0.055283 0.981066 0.18382199999999999 0.076321 -0.264579 -0.311309 -0.178598 1.637958 1.470993 0.884802 -0.076265 -0.048485999999999994 0.370341 -1.292793 0.03318599999999999 1.0234779999999999 0.744231 1.036464 0.5029830000000001 1.127405 -0.061962 -0.466516 -0.06536600000000001 3.82374 -0.626867 1.225042 0.29234000000000004 -0.7834639999999999 0.3358 0.963476 0.3639 -0.91234 -0.8142280000000001 0.634001 -0.5211939999999999 0.648289
born -0.219639 0.811765 -0.713346 -0.802114 0.82542 0.484453 -0.42705 0.933273 0.308453 0.671265 0.776537 0.019246 -0.382997 -0.227634 -1.218902 -0.213717 0.380089 0.16004200000000002 -0.216592 0.379578 0.802879 2.083958 0.77742 0.11598200000000003 -0.087897 -0.458039 -0.247579 -0.325281 -0.750071 0.5931470000000001 -0.299028 -0.314543 0.560995 1.271413 0.902157 0.7404710000000001 0.5273519999999999 3.5822599999999998 0.8009700000000001 1.065417 -0.163144 -1.1225990000000001 -0.16834699999999997 -0.828529 -0.178607 0.109875 -0.197627 -0.220504 -0.599548 0.203825
small -0.295796 -1.23589 -0.399157 0.236736 -0.239045 0.913991 0.663862 -0.11674399999999999 -0.333643 -1.173958 0.019639000000000018 -0.04183 0.415927 0.966842 -0.092387 0.059941999999999995 -0.5157499999999999 -0.13159700000000002 -0.872674 0.342741 -0.191033 -0.079437 -0.829828 -0.212866 -0.157701 0.158207 0.16916199999999998 -0.593995 0.07429600000000001 0.593823 0.176387 0.261665 0.362229 -0.5579259999999999 -0.17934899999999998 0.7542 -0.108035 4.792667 0.052991999999999984 0.208425 0.37053400000000003 -0.333221 0.41048799999999996 0.17612599999999998 0.100861 0.255813 0.11527799999999999 -0.311682 -0.08066000000000001 0.21465
along 0.287621 -0.9861599999999999 0.275004 0.319806 -0.072819 0.745775 -0.010891000000000001 0.48180300000000004 -0.242367 -0.47912499999999997 0.136023 -0.29566 0.082617 0.388227 -0.18071199999999998 0.48372499999999996 -0.23085899999999998 0.036570000000000005 -0.375118 0.436691 0.601723 -0.359674 -0.382057 -0.144541 -0.11039399999999999 -0.111564 0.228956 0.08505499999999999 -0.811504 0.49663 -0.5503560000000001 -0.226351 -0.644543 -0.261339 -0.04921199999999999 0.35251 0.320584 4.571103 -0.003248000000000001 0.142069 -0.289356 -0.487747 0.299454 0.009063000000000002 0.36293 -0.5823389999999999 -0.06747799999999998 -0.621174 0.008067999999999992 -0.455844
japan 0.144698 -0.245148 0.348302 -0.948415 0.305609 -0.774913 -0.448873 -0.656555 -0.6646700000000001 -0.133962 1.048139 0.240013 -0.360653 -0.226049 -0.401628 -1.3836490000000001 -0.071325 0.344703 -0.260815 -1.086849 -0.558481 -0.34349 -0.030593000000000002 -0.803285 -0.663675 0.37378 -0.165848 0.7159150000000001 0.39947199999999994 -0.8540989999999999 0.832963 -0.405594 -1.6291579999999999 1.2160570000000002 1.330685 0.271655 0.16429 4.303791 0.033983 -0.602014 0.339435 0.021678000000000003 0.921813 0.210629 1.234842 -0.925845 1.0475780000000001 0.520502 0.232234 -0.388473
every -0.22869899999999999 -0.521166 -0.726065 -0.069962 0.030088000000000004 0.022081999999999997 0.12307399999999999 -0.488961 -0.019679000000000002 -0.294104 -0.037735000000000005 -0.145572 -0.205157 -0.310143 -0.004282000000000008 0.21769 0.016350000000000003 -0.7163579999999999 0.287024 0.463017 -0.803477 -0.17518499999999998 0.422369 0.461744 -0.818596 -0.06516400000000001 -0.809836 -0.470113 -0.017484 0.34098 0.08676500000000001 -0.464785 -0.145874 -0.583016 -0.784983 0.113625 0.12875899999999998 4.7031279999999995 -0.310104 -0.340536 0.08829999999999999 0.634672 0.345298 0.7030179999999999 -0.500616 -0.219801 -0.30785700000000005 0.151196 0.14809399999999998 0.876384
far 0.297864 0.098076 0.045166 0.114301 -0.6069869999999999 0.31569400000000003 0.092842 -0.529271 -0.31452199999999997 -0.553625 0.430375 -0.16177 0.426862 -0.221767 0.339999 0.003245999999999999 -0.05244800000000001 -0.126001 -0.6208899999999999 0.033771999999999996 -0.065169 -0.34584400000000004 0.40408 -0.28151400000000004 0.077711 0.312491 0.037029 -0.278177 -0.025732 -0.194473 0.002812999999999996 0.029032000000000002 -0.1756 -0.66615 0.469576 -0.195421 0.810743 4.727919 -0.159 0.042786000000000005 -0.117193 0.342991 1.042231 0.315747 -0.5223610000000001 -0.514305 -0.0034030000000000015 0.232191 -0.191191 0.46892
cup 0.609583 -0.6844319999999999 -0.8217920000000001 -1.188779 0.885455 0.527058 -0.563518 0.803845 0.094885 -1.15251 -0.7147939999999999 0.442292 0.614395 -0.7367619999999999 -1.315798 -1.900174 0.839166 0.433137 1.0981100000000001 -0.069476 -0.397508 -1.183794 0.488702 -0.799294 -0.793706 0.432515 -0.192665 -0.47836100000000004 -0.704704 -0.248304 -0.34737999999999997 1.022553 -0.048008999999999996 1.844942 -0.083095 -2.6067 -1.168519 4.379550999999999 0.659724 -0.182001 0.22440000000000002 0.149738 0.04359299999999999 0.08966400000000001 -0.453912 0.80522 0.143759 -0.52093 -0.033388 0.488756
record -0.10061999999999999 0.248721 -0.19501 -0.654563 -0.116987 0.063165 -0.1935 -0.651302 0.623093 0.931038 -0.266254 -0.229765 0.505166 -0.598074 -0.572281 -0.41536700000000004 1.1733859999999998 0.165968 0.307726 0.275099 -0.779947 -0.986139 1.942891 -0.206517 0.624985 0.235264 0.052316 -0.741587 -0.607073 -0.283971 -0.25326699999999996 -0.185813 -0.542778 0.08574699999999999 -0.07436399999999999 -0.702076 0.13918999999999998 4.335912 -0.306542 -0.391593 -0.995593 0.522593 0.492749 0.722601 0.675664 -0.553725 0.320265 0.727985 -0.060487 -0.288188
went -0.15972999999999998 -0.529533 -0.08712900000000001 -0.046012000000000004 0.39861199999999997 -0.492632 -0.280893 0.309702 0.36385500000000004 0.433385 -0.359409 0.21435900000000002 0.201654 -0.20031999999999997 -0.07330700000000001 -0.30278099999999997 0.217861 -0.188618 0.02368 0.5706899999999999 0.705481 0.11272599999999997 0.838999 0.09924799999999999 -0.391913 0.148769 -0.443083 -0.11844400000000002 -0.261878 0.383691 -0.382181 -0.333129 -0.11421099999999998 0.04591500000000001 0.7686379999999999 0.13120300000000001 -0.018526999999999988 4.408486 0.23578600000000002 -0.268754 -0.596444 0.166878 0.050726999999999994 0.135056 -0.0025249999999999995 -0.39269 -0.18487299999999998 -0.19954100000000002 -0.262444 0.019164999999999998
again -0.056865 -0.265402 0.098906 0.048639 0.888249 -0.40802099999999997 -0.093179 0.464402 0.039180000000000006 -0.046248999999999985 0.263367 0.54491 0.176175 -0.670095 0.166178 -0.525448 -0.161664 -0.42665499999999995 0.72841 0.718067 0.7263120000000001 0.087333 0.728686 0.06600400000000001 -0.37838800000000006 -0.039728 -0.610832 0.237101 -0.337151 0.13688499999999998 -0.708946 -0.147919 -0.513961 0.044538 0.70591 -0.593379 0.056907999999999986 4.698536 0.092689 0.170101 -0.45867500000000005 0.536501 0.8942730000000001 0.36058 -0.031365000000000004 -0.092046 -0.271543 -0.067872 -0.0028520000000000004 -0.02974199999999999
development 0.56534 0.376909 0.34661 0.098136 -0.423612 1.08185 -0.010522000000000004 -0.696731 -0.11138899999999999 0.931316 0.720434 -0.285912 -1.342858 -0.163218 -0.027409000000000003 -0.15368500000000002 -1.161134 0.479273 -0.233734 -0.948248 -0.8942699999999999 -0.817105 -0.784958 -0.271605 0.28503599999999996 -0.162212 0.207109 0.477184 1.332112 0.297769 0.454936 0.08976999999999999 -0.320457 0.069562 -0.155221 -0.047632999999999995 0.553474 4.581146 1.02799 1.101132 0.147555 -0.17278500000000002 -0.458378 -0.136607 0.929216 0.184667 0.12261 -0.539863 -0.56045 -0.174981
spokesman 1.136417 0.86452 0.245728 0.403148 1.268144 -0.7161029999999999 -0.762257 0.19104299999999996 -0.370699 1.129844 0.571423 -0.9742010000000001 -0.246116 0.472963 0.550624 1.21455 0.27137 0.17814400000000002 -0.63995 -0.8855869999999999 0.9570080000000001 -0.209331 -0.945338 0.90654 -0.7654810000000001 0.07295399999999999 1.439593 0.598473 0.162588 -1.339421 0.7999350000000001 -0.903643 0.21712499999999998 0.06764699999999998 0.708869 -0.694024 -1.324799 3.723842 -0.30892000000000003 -0.358477 0.51414 0.557464 -1.1754609999999999 -1.057898 0.037720000000000004 0.747053 0.629791 -0.502472 -1.119034 1.1092629999999999
program 0.284561 0.099139 0.978963 -0.333267 -0.30736 0.544195 0.38892 -0.862365 0.171903 1.63527 -0.598385 -0.518044 -0.62646 -0.903511 0.046038 0.27426 -0.759162 -0.130575 0.915363 0.22039199999999998 -1.462623 -0.32967100000000005 -0.48396799999999995 -0.410523 0.018327999999999997 -0.125308 -0.65412 0.026709 1.0419749999999999 0.346633 0.516254 -0.594233 -0.596137 0.0235 -0.571294 0.32268 0.27399700000000005 4.6493590000000005 0.091322 -0.404202 -0.238639 -0.2839 -0.251503 -0.8784270000000001 -0.534042 -0.057672 0.15955 -0.162596 -0.272397 -0.10435699999999999
announced 0.395502 0.137451 1.2579859999999998 -0.614609 0.897482 -0.474798 -0.031275 -0.20976699999999998 -0.015082999999999985 1.421866 0.300269 0.5997239999999999 -0.256358 -0.316143 0.325413 -0.058054999999999995 0.022717 0.03470099999999998 0.6605190000000001 -0.618349 0.514668 -0.401596 -0.054619 -0.7509440000000001 -0.663956 0.131847 0.534572 0.075519 0.10502 -0.12543300000000002 0.648903 -0.182116 -0.29112000000000005 0.67476 -0.388911 -0.682732 -0.470156 4.328271 0.027662999999999993 -0.196079 0.20504 0.441914 -0.159884 -1.514831 0.877937 0.42904600000000004 -0.182361 -0.295584 -0.12609199999999998 -0.021311999999999998
district 0.885903 0.04085799999999999 -0.958332 0.682978 -0.171395 -0.6477660000000001 -0.333275 0.44298000000000004 -0.434464 0.097564 -0.081584 -1.516953 -2.287453 1.490446 0.68432 -0.353337 -0.75587 0.68432 -0.910432 0.7108669999999999 0.290925 0.568678 -0.873312 0.126023 -0.712296 0.822737 1.2478090000000002 -0.272714 -0.781524 -0.07850799999999997 -1.373848 0.166606 0.9080539999999999 1.094389 -0.372567 -0.209619 0.823871 4.268917 -0.638556 0.59303 -0.418701 -0.678308 1.049263 -1.5321099999999999 0.604852 -0.9696199999999999 -0.696202 0.44722300000000004 -0.9855349999999999 0.456276
lost -0.5468850000000001 0.017364000000000004 -0.2913 -0.332339 0.271015 -0.333759 -0.63744 0.143376 0.46491000000000005 -0.019506999999999997 0.5806910000000001 0.5912200000000001 0.152334 0.509603 -0.046416999999999986 -0.869929 0.586938 -0.031305 0.270207 0.120766 0.429655 -0.028454000000000007 1.2955649999999999 -0.080567 0.042954000000000006 0.253749 0.23332000000000003 -0.437821 -0.20786 0.088935 0.049783999999999995 0.6004510000000001 -0.05990099999999998 0.133001 0.612581 -0.7229589999999999 -0.42202199999999995 4.457365 0.668342 -0.29650200000000004 -0.562207 0.08343800000000001 0.164872 0.74021 -0.212509 -0.890061 -0.089746 0.370746 -0.252703 -0.15622699999999998
your -1.214517 -0.422806 -1.081438 0.552639 0.608455 -0.862141 0.249749 -0.042026999999999995 -0.166653 -0.866297 -0.979758 0.536422 -0.080378 0.273092 -0.661579 0.505852 -0.934299 -1.057323 1.578168 0.44835900000000006 -1.085574 0.010028999999999996 -0.669967 0.70712 -0.201947 -0.19237400000000002 -0.8329960000000001 0.364249 1.071994 -0.104759 0.004605999999999999 -0.137483 -0.5891919999999999 -0.7622260000000001 -0.9600120000000001 0.77668 -0.360542 4.820478 0.312064 -0.42201 -0.279259 0.735908 0.170078 1.351682 -1.299925 -0.47395 -0.338667 0.188797 0.882883 0.41158700000000004